encog,BasicNetwork,java,3.3.0,1,63608310679855
[BASIC]
[BASIC:PARAMS]
[BASIC:NETWORK]
beginTraining=0
connectionLimit=0
contextTargetOffset=0,0,0
contextTargetSize=0,0,0
endTraining=2
hasContext=f
inputCount=22
layerCounts=1,7,23
layerFeedCounts=1,6,22
layerContextCount=0,0,0
layerIndex=0,1,8
output=0,0,0,0,0,0,0,1,0,0,0,0,0,0,0,0,0,0,0,0,0,0,0,0,0,0,0,0,0,0,1
outputCount=1
weightIndex=0,7,145
weights=-0.31393257484308,-0.490089112572529,0.534801259581413,0.277026056739515,-0.31010539914917,0.176769341262705,-0.767302378605794,0.374964622350182,0.611171842228284,0.663153998271475,0.509910184708629,0.631249716741251,-0.631878450098148,1.7673081055102,0.60175327137183,-1.29826625453085,-0.155363445554287,-1.32291770542875,0.159715462677985,0.651050914792879,0.0442944923682216,1.47766922027833,-0.478084294404219,-0.528597941629769,-1.09977877053956,-1.00204398262337,-0.151071369320653,-1.03137965110943,-0.48269134677839,0.654342751258004,-0.70187643001793,1.11612873376151,-0.626867266142522,-0.44913442910795,-0.444013237096239,0.698630164551086,-0.00411949984351858,-0.619708507659514,0.212979426699885,1.38100493593419,0.65007860139845,0.73684271070348,-0.410792949058429,0.217829172334579,0.106738146279437,0.574146265155789,-1.48218334911526,-3.02268992501597,0.139645318253863,0.202429551855815,0.567580444562049,0.470564959693838,-0.880022280578485,-0.320785143520301,0.385726335375951,-0.124169105754688,0.469804209525619,0.338893473987948,-0.748651614890711,-0.739609710476246,0.752645861729445,-0.819816447516071,0.672460783586523,-0.713349813148624,0.0322743993051899,-0.594944769039915,-0.167361812662414,0.218293675508382,0.25446923359456,0.708318585136542,-0.384642419508096,0.170592837077569,-0.0120982222499983,0.0304565695774132,0.108830620453385,-0.263103368978057,-0.305960627118447,-0.971948169638625,0.147106934163816,-2.00414724548546,-2.40398242287507,0.055371316691855,0.377985302182225,-1.05360745547178,0.757170529736904,-2.14495025425727,0.0302108815394145,-0.306249403000594,0.719638495921917,0.858914693117993,-0.430756201015375,-0.386984463076796,0.521769385615217,-0.81191049284484,-1.56989208650557,2.94513504868109,0.538854819674743,0.0633195344464766,-0.208971903111057,0.554261827408417,-1.0777261480276,0.370286346284653,0.382124675740248,0.454554608324164,0.195467231494885,0.847357534100794,1.85964189634874,-1.16593360611526,0.607221139243434,-0.82484365347227,-0.889248188731718,-1.7515294794505,0.274599226073695,-0.216293895606343,-2.04150062716888,1.37364752386087,-2.60929295701171,-1.35074422166543,-1.98997679718967,0.227557243498091,0.22374590221372,-1.02630083060221,-0.189716895878201,-0.0221931959108978,-0.479529625795605,0.520221810165248,0.740875893087952,0.591441167476089,0.197908966263784,-0.978143307651031,0.38695132085773,2.87965130918424,0.837304003522823,0.0190800355109515,0.131873092756471,1.62145992499637,1.38676852390585,-0.83469734575859,-0.640438103146029,6.64054222738345,-0.341349906567948,-0.228437097646556,-1.27072328742611,-0.0379780543387426,0.904112841351193
biasActivation=0,1,1
[BASIC:ACTIVATION]
"ActivationTANH"
"ActivationTANH"
"ActivationLinear"
