encog,BasicNetwork,java,3.3.0,1,63608747693406
[BASIC]
[BASIC:PARAMS]
[BASIC:NETWORK]
beginTraining=0
connectionLimit=0
contextTargetOffset=0,0,0
contextTargetSize=0,0,0
endTraining=2
hasContext=f
inputCount=22
layerCounts=1,7,23
layerFeedCounts=1,6,22
layerContextCount=0,0,0
layerIndex=0,1,8
output=0,0,0,0,0,0,0,1,0,0,0,0,0,0,0,0,0,0,0,0,0,0,0,0,0,0,0,0,0,0,1
outputCount=1
weightIndex=0,7,145
weights=0.75483608901594,0.484689386092063,0.0981525487136262,0.755292849631099,-0.492030707036336,-0.202555090814923,0.30275385483851,-0.10416925065772,-0.135829462073476,0.0315096828851284,1.07623574754471,-0.165199973690308,-0.728485504065504,-0.58092489677467,0.528739442606707,0.474111572046591,-0.0529093109249783,-0.384627762942137,0.309875144646493,0.123210293552303,0.0308046778364997,0.21744195393486,0.0181456039858778,0.332794305323416,0.373803484448776,0.583206912178362,0.722316053637244,0.0998276855626219,0.478435467214274,-0.931093712005167,0.0581599306522673,0.515248157969644,0.0275861549773785,-0.171130441762487,2.05678984018585,1.09997012312664,0.605415749594183,2.06303007662901,0.983086908683957,-0.333789600994183,-0.0165775465747268,0.658441073081782,1.5273411875554,0.402019473060865,0.0857189095883005,1.02561297323352,0.852459874098053,0.263471362627115,0.685652667906025,2.40518059512116,-0.166342687629478,0.742414718280831,-1.5289048443347,-0.778016144578368,0.741631132294778,0.559390348544664,0.487389346077694,-0.669134539287332,-0.420296223472413,-0.264109202589363,-3.22200574680264,-0.820105249740457,0.395578394807519,-0.177446786992577,-2.84988652515491,0.417848182561547,0.794714016166126,0.700333228722254,2.03345170038677,0.167655261874173,3.23182998436717,0.74644018821803,0.34446851635935,0.568895928339292,-0.726081485795676,0.364642754684737,0.596956913375668,0.220131218023124,0.378918817871393,-0.363396772357081,-0.307664096078185,-0.54696692748826,0.158451479407788,-0.395982858442148,-0.274448769396311,-0.0971944766830096,-0.125213071474022,-0.673179167850292,-0.239358319801335,-0.566289217461972,-0.437084972976226,0.0103470791143384,-0.44400373979122,-0.447484353403044,0.127462931225254,-0.531196301028292,0.857864336714173,-0.70865368135399,0.38027407485522,0.28614076544213,-0.525511496371082,0.612037163847332,0.23942863276817,-0.509263792036331,-0.0390605997841116,0.575531165356838,0.388023339471395,-0.462670792941775,-0.380568094922892,0.279897954722373,-0.578281546441544,-0.395704040816105,-1.45387659697474,-0.349039657606503,-0.33951281780444,-0.551294045624886,-0.352804984270345,0.649857737619972,-0.0501443841796779,0.765875691496905,-0.0983894537294252,0.541998385185991,-0.333524868122602,1.24431752246994,0.285306727530714,1.21584032981075,0.060794670049421,-0.696322918378588,0.723272728978208,1.14093290691465,1.19402669852361,0.519303129285263,-1.66313401513928,-2.7354880782249,0.607139452415392,2.48656950878321,-1.79890855731376,1.29521205572497,-0.0575964247274197,-2.683666289656,0.802675123254951,-2.80340059214155,-0.094897291386956,0.432005600026987,-0.309377056117639
biasActivation=0,1,1
[BASIC:ACTIVATION]
"ActivationTANH"
"ActivationTANH"
"ActivationLinear"
